5.664643480891290439e-02 3.442509575903311414e-01 1.422129812821736616e-01 -2.820029842249014429e-01 -3.148828431430211738e-01 -1.904522359623921079e-01 2.617115452072476395e-02 -5.148315371935829193e-02 -7.437201162861399595e-02 3.214536795746698872e-02 -3.221106312323215315e-01 -6.093415372231254096e-02 1.283266775976633634e-01 1.055026785281292928e-01 -1.726894675034008064e-01 -8.192990040422867826e-02 2.868107672037503025e-02 -1.253313255786948077e-01 -5.000716171885470906e-01 1.345367984943873774e-01 -2.504210436577612997e-01 -1.531160085684604016e-02 1.748923739327276905e-01 1.405171249513042508e-01
2.130214643858053813e-01 3.481272568064924799e-01 -3.156490159065780676e-01 -3.208335634678360915e-01 1.937820123350550705e-01 -2.390305608493398237e-01 -4.892406816658725899e-01 -2.761943788722150406e-01 5.211579481891609467e-02 5.203502882570690824e-01 4.239234030645436246e-01 3.108966179897078019e-01 -3.121349276110329529e-01 -6.150488519516657086e-03 -9.902088314983129025e-02 -3.354608847260510118e-01 5.253241087916174501e-02 -1.585220858956457035e-01 -1.693884445808936379e-01 -3.072411465882980974e-01 -2.466220718185950511e-01 -1.925877653710476589e-01 1.150343328927397671e-02 1.546064834362041174e-01
3.744776386395396450e-01 5.502060910887280470e-02 4.918783039943843555e-02 -2.083996004326419960e-01 3.155261325025408847e-02 -2.896292683920498878e-01 -1.993679288973738417e-01 7.540726649987453123e-02 -2.960566215720621397e-01 -3.161118894561018577e-01 -6.033683171418132568e-02 -6.200127726523580601e-03 -7.423534652720473193e-02 1.160514050226940652e-02 2.067201777276269081e-01 -4.375545858996230525e-02 -2.771206250455741579e-02 3.149302176317955726e-01 4.189467052853208529e-01 -4.273644350507962292e-02 -5.590379306824899697e-02 4.959897504024527448e-01 1.942708869529923554e-01 3.108959201978611989e-02
1.274355387661604277e-01 1.917181072665868624e-01 4.624036494822651028e-02 -3.249165333028166680e-01 4.636644887833415996e-02 2.075135169488562803e-01 1.946228138233243310e-01 5.821126277878674316e-02 5.015622432940998118e-03 -3.086118108968032708e-02 -2.030495039296549842e-01 -4.697052923144355296e-01 -7.490075249547256675e-02 2.940938460480205241e-02 -3.861245499636513367e-02 -9.562870044925621260e-02 -1.603265734106108509e-01 -8.533314353063035929e-02 -7.449787439054850191e-02 -1.683713859059103868e-01 3.850237059515051151e-03 1.372927564296815839e-01 -1.816074936948310348e-01 1.011795535024103271e-01
